svm_type c_svc
kernel_type rbf
gamma 0.045454545454545456
nr_class 2
total_sv 297
rho 0.41538606202206146
label 1 -1
nr_sv 146 151
SV
1 0:1 1:1 2:1 3:1 4:1 5:0 6:0 7:0 8:0 9:1 10:1 11:1 12:1 13:1 14:0 15:1 16:1 17:1 18:1 19:1 20:1 21:1 22:1 
1 0:1 1:1 2:1 3:1 4:1 5:0 6:1 7:1 8:0 9:0 10:0 11:0 12:0 13:1 14:0 15:0 16:0 17:0 18:0 19:0 20:0 21:1 22:1 
1 0:1 1:1 2:1 3:1 4:1 5:0 6:1 7:1 8:0 9:0 10:0 11:0 12:0 13:1 14:0 15:0 16:0 17:0 18:0 19:0 20:0 21:1 22:1 
1 0:1 1:1 2:1 3:1 4:1 5:0 6:1 7:1 8:0 9:0 10:0 11:0 12:0 13:1 14:0 15:0 16:0 17:0 18:0 19:0 20:0 21:1 22:1 
1 0:1 1:1 2:1 3:1 4:1 5:0 6:0 7:1 8:0 9:1 10:0 11:0 12:1 13:0 14:0 15:0 16:0 17:0 18:1 19:1 20:0 21:0 22:0 
1 0:1 1:1 2:1 3:1 4:1 5:0 6:0 7:0 8:0 9:1 10:0 11:0 12:1 13:0 14:0 15:0 16:0 17:0 18:1 19:1 20:0 21:0 22:0 
1 0:1 1:1 2:1 3:1 4:1 5:1 6:1 7:0 8:0 9:1 10:1 11:1 12:1 13:1 14:1 15:1 16:1 17:1 18:1 19:1 20:1 21:0 22:1 
1 0:1 1:1 2:1 3:1 4:1 5:1 6:1 7:1 8:1 9:0 10:0 11:0 12:0 13:0 14:1 15:0 16:0 17:0 18:0 19:0 20:0 21:0 22:0 
1 0:1 1:1 2:1 3:1 4:1 5:0 6:0 7:0 8:0 9:1 10:1 11:1 12:1 13:0 14:0 15:0 16:0 17:1 18:1 19:1 20:1 21:0 22:0 
1 0:1 1:1 2:1 3:1 4:1 5:0 6:0 7:0 8:0 9:0 10:0 11:1 12:1 13:0 14:0 15:1 16:1 17:1 18:1 19:1 20:1 21:1 22:1 
1 0:0 1:0 2:0 3:0 4:0 5:1 6:1 7:1 8:1 9:1 10:1 11:0 12:0 13:1 14:1 15:0 16:0 17:0 18:0 19:0 20:0 21:0 22:1 
1 0:0 1:0 2:0 3:0 4:0 5:1 6:1 7:1 8:1 9:1 10:1 11:0 12:0 13:1 14:1 15:0 16:0 17:0 18:0 19:0 20:0 21:0 22:1 
1 0:1 1:1 2:1 3:1 4:1 5:0 6:1 7:1 8:0 9:0 10:0 11:0 12:0 13:1 14:0 15:0 16:0 17:0 18:0 19:0 20:0 21:1 22:1 
1 0:1 1:1 2:1 3:1 4:1 5:1 6:1 7:1 8:1 9:0 10:0 11:0 12:0 13:0 14:1 15:0 16:0 17:0 18:0 19:0 20:0 21:1 22:1 
1 0:1 1:1 2:1 3:1 4:1 5:1 6:1 7:1 8:1 9:0 10:0 11:0 12:0 13:0 14:1 15:0 16:0 17:0 18:0 19:0 20:0 21:1 22:1 
1 0:1 1:1 2:1 3:1 4:1 5:0 6:1 7:0 8:0 9:1 10:1 11:1 12:1 13:1 14:0 15:1 16:1 17:1 18:1 19:1 20:1 21:1 22:1 
1 0:1 1:1 2:1 3:1 4:1 5:1 6:1 7:1 8:1 9:1 10:1 11:0 12:0 13:0 14:1 15:0 16:0 17:1 18:1 19:0 20:0 21:0 22:1 
1 0:1 1:1 2:1 3:1 4:1 5:0 6:0 7:0 8:0 9:1 10:1 11:1 12:1 13:1 14:0 15:1 16:1 17:1 18:1 19:1 20:1 21:1 22:1 
1 0:1 1:1 2:1 3:1 4:1 5:0 6:0 7:0 8:0 9:0 10:0 11:1 12:1 13:0 14:0 15:1 16:1 17:1 18:1 19:1 20:1 21:1 22:1 
1 0:1 1:1 2:1 3:1 4:1 5:0 6:0 7:0 8:0 9:1 10:1 11:0 12:1 13:0 14:0 15:0 16:0 17:0 18:1 19:1 20:0 21:0 22:0 
1 0:1 1:0 2:0 3:0 4:0 5:1 6:1 7:1 8:1 9:1 10:1 11:1 12:1 13:1 14:1 15:1 16:1 17:1 18:1 19:1 20:1 21:1 22:1 
1 0:0 1:0 2:0 3:0 4:0 5:1 6:0 7:0 8:0 9:0 10:0 11:0 12:0 13:0 14:1 15:0 16:0 17:0 18:0 19:0 20:0 21:0 22:0 
1 0:1 1:1 2:1 3:1 4:1 5:1 6:1 7:1 8:1 9:0 10:0 11:0 12:0 13:0 14:1 15:0 16:0 17:0 18:0 19:0 20:0 21:1 22:1 
1 0:1 1:1 2:1 3:1 4:1 5:0 6:0 7:0 8:0 9:0 10:0 11:1 12:1 13:0 14:0 15:1 16:1 17:1 18:1 19:1 20:1 21:1 22:1 
0.56295014063653981 0:0 1:0 2:0 3:0 4:1 5:1 6:1 7:1 8:1 9:1 10:1 11:1 12:1 13:1 14:1 15:1 16:1 17:1 18:1 19:1 20:1 21:1 22:1 
1 0:0 1:0 2:0 3:0 4:1 5:1 6:1 7:1 8:1 9:1 10:1 11:1 12:1 13:1 14:1 15:1 16:1 17:1 18:1 19:1 20:1 21:1 22:1 
1 0:0 1:0 2:0 3:0 4:1 5:1 6:1 7:1 8:1 9:1 10:1 11:1 12:1 13:1 14:1 15:1 16:1 17:1 18:1 19:1 20:1 21:1 22:1 
1 0:1 1:1 2:1 3:1 4:1 5:0 6:0 7:1 8:0 9:1 10:1 11:1 12:1 13:1 14:0 15:1 16:1 17:1 18:1 19:1 20:1 21:1 22:1 
1 0:1 1:1 2:1 3:1 4:1 5:0 6:1 7:0 8:0 9:1 10:1 11:1 12:1 13:0 14:0 15:1 16:1 17:1 18:1 19:1 20:1 21:0 22:0 
1 0:1 1:1 2:1 3:1 4:1 5:0 6:0 7:1 8:0 9:1 10:1 11:1 12:1 13:1 14:0 15:1 16:1 17:1 18:1 19:1 20:1 21:1 22:1 
1 0:1 1:1 2:1 3:1 4:1 5:0 6:1 7:1 8:0 9:0 10:0 11:0 12:0 13:1 14:0 15:0 16:0 17:0 18:0 19:0 20:0 21:1 22:1 
1 0:1 1:1 2:1 3:1 4:1 5:0 6:1 7:1 8:0 9:0 10:0 11:0 12:0 13:1 14:0 15:0 16:0 17:0 18:0 19:0 20:0 21:1 22:1 
1 0:1 1:1 2:1 3:1 4:1 5:0 6:1 7:1 8:0 9:0 10:0 11:0 12:0 13:1 14:0 15:0 16:0 17:0 18:0 19:0 20:0 21:1 22:1 
1 0:1 1:1 2:1 3:1 4:1 5:0 6:0 7:1 8:0 9:1 10:0 11:0 12:1 13:0 14:0 15:0 16:0 17:0 18:1 19:1 20:0 21:0 22:0 
1 0:1 1:1 2:1 3:1 4:1 5:0 6:0 7:1 8:0 9:1 10:1 11:1 12:1 13:1 14:0 15:1 16:1 17:1 18:1 19:1 20:1 21:1 22:1 
1 0:0 1:0 2:0 3:0 4:1 5:0 6:0 7:0 8:0 9:1 10:1 11:1 12:1 13:0 14:0 15:1 16:1 17:1 18:1 19:1 20:1 21:0 22:0 
1 0:1 1:1 2:1 3:1 4:1 5:0 6:1 7:0 8:0 9:1 10:1 11:1 12:1 13:0 14:0 15:1 16:1 17:1 18:1 19:1 20:1 21:0 22:0 
1 0:0 1:0 2:0 3:0 4:0 5:0 6:0 7:0 8:0 9:0 10:0 11:1 12:1 13:0 14:0 15:0 16:0 17:1 18:1 19:1 20:1 21:0 22:0 
1 0:1 1:1 2:1 3:1 4:1 5:0 6:0 7:0 8:0 9:0 10:0 11:1 12:1 13:0 14:0 15:0 16:0 17:1 18:1 19:1 20:1 21:0 22:0 
1 0:0 1:0 2:0 3:0 4:0 5:0 6:0 7:0 8:0 9:0 10:0 11:1 12:1 13:0 14:0 15:0 16:0 17:1 18:1 19:1 20:1 21:0 22:0 
1 0:1 1:1 2:1 3:1 4:1 5:0 6:0 7:0 8:0 9:0 10:0 11:1 12:1 13:0 14:0 15:1 16:1 17:1 18:1 19:1 20:1 21:1 22:1 
1 0:1 1:1 2:1 3:1 4:1 5:0 6:0 7:0 8:0 9:0 10:0 11:1 12:1 13:0 14:0 15:1 16:1 17:1 18:1 19:1 20:1 21:1 22:1 
1 0:1 1:1 2:1 3:1 4:1 5:0 6:0 7:0 8:0 9:0 10:0 11:1 12:1 13:0 14:0 15:1 16:1 17:1 18:1 19:1 20:1 21:1 22:1 
1 0:1 1:1 2:1 3:1 4:1 5:0 6:0 7:0 8:0 9:0 10:0 11:1 12:1 13:0 14:0 15:1 16:1 17:1 18:1 19:1 20:1 21:1 22:1 
1 0:1 1:1 2:1 3:1 4:1 5:0 6:0 7:0 8:0 9:1 10:1 11:1 12:1 13:0 14:0 15:1 16:1 17:1 18:1 19:1 20:1 21:0 22:0 
1 0:1 1:1 2:1 3:1 4:1 5:0 6:0 7:0 8:0 9:1 10:1 11:1 12:1 13:0 14:0 15:1 16:1 17:1 18:1 19:1 20:1 21:0 22:0 
1 0:1 1:1 2:1 3:1 4:1 5:0 6:1 7:1 8:0 9:1 10:1 11:0 12:1 13:1 14:0 15:0 16:0 17:0 18:1 19:1 20:0 21:0 22:1 
1 0:1 1:1 2:1 3:1 4:1 5:0 6:0 7:0 8:0 9:1 10:1 11:1 12:1 13:0 14:0 15:1 16:1 17:1 18:1 19:1 20:1 21:1 22:1 
1 0:1 1:1 2:1 3:1 4:1 5:0 6:0 7:0 8:0 9:0 10:0 11:1 12:1 13:0 14:0 15:1 16:1 17:1 18:1 19:1 20:1 21:1 22:1 
1 0:1 1:1 2:1 3:1 4:1 5:0 6:0 7:0 8:0 9:1 10:1 11:1 12:1 13:0 14:0 15:1 16:1 17:1 18:1 19:1 20:1 21:1 22:1 
1 0:0 1:0 2:0 3:0 4:0 5:0 6:0 7:0 8:0 9:0 10:0 11:1 12:1 13:0 14:0 15:0 16:0 17:1 18:1 19:1 20:1 21:0 22:0 
1 0:0 1:0 2:0 3:0 4:0 5:0 6:0 7:0 8:0 9:0 10:0 11:1 12:1 13:0 14:0 15:0 16:0 17:1 18:1 19:1 20:1 21:0 22:0 
1 0:1 1:1 2:1 3:1 4:1 5:0 6:0 7:0 8:0 9:0 10:0 11:1 12:1 13:0 14:0 15:0 16:0 17:1 18:1 19:1 20:1 21:0 22:0 
1 0:0 1:0 2:0 3:0 4:0 5:0 6:0 7:0 8:0 9:0 10:0 11:1 12:1 13:0 14:0 15:0 16:0 17:1 18:1 19:1 20:1 21:0 22:0 
1 0:1 1:1 2:1 3:1 4:1 5:0 6:0 7:1 8:0 9:0 10:0 11:0 12:1 13:1 14:0 15:0 16:0 17:0 18:1 19:1 20:0 21:1 22:1 
1 0:1 1:1 2:1 3:1 4:1 5:0 6:0 7:1 8:0 9:1 10:1 11:1 12:1 13:1 14:0 15:1 16:1 17:1 18:1 19:1 20:1 21:1 22:1 
1 0:1 1:1 2:1 3:1 4:1 5:0 6:0 7:1 8:0 9:1 10:1 11:1 12:1 13:1 14:0 15:1 16:1 17:1 18:1 19:1 20:1 21:1 22:1 
1 0:1 1:1 2:1 3:1 4:1 5:0 6:0 7:0 8:0 9:1 10:1 11:0 12:0 13:0 14:0 15:0 16:0 17:1 18:1 19:0 20:0 21:0 22:0 
1 0:1 1:1 2:1 3:1 4:1 5:1 6:1 7:1 8:1 9:0 10:0 11:0 12:0 13:0 14:1 15:0 16:0 17:0 18:0 19:0 20:0 21:1 22:1 
1 0:0 1:0 2:1 3:1 4:1 5:1 6:0 7:0 8:0 9:1 10:1 11:1 12:1 13:0 14:1 15:1 16:1 17:1 18:1 19:1 20:1 21:0 22:0 
1 0:0 1:0 2:1 3:1 4:1 5:1 6:0 7:0 8:0 9:1 10:1 11:1 12:1 13:0 14:1 15:1 16:1 17:1 18:1 19:1 20:1 21:0 22:0 
1 0:1 1:1 2:1 3:1 4:1 5:0 6:1 7:1 8:0 9:0 10:0 11:0 12:1 13:0 14:0 15:0 16:0 17:0 18:1 19:1 20:0 21:0 22:0 
1 0:1 1:1 2:1 3:1 4:1 5:1 6:1 7:1 8:1 9:0 10:0 11:0 12:0 13:0 14:1 15:0 16:0 17:0 18:0 19:0 20:0 21:1 22:1 
1 0:1 1:1 2:1 3:1 4:1 5:1 6:1 7:1 8:1 9:1 10:1 11:1 12:1 13:1 14:1 15:1 16:1 17:1 18:1 19:1 20:1 21:1 22:1 
1 0:0 1:0 2:1 3:1 4:1 5:0 6:0 7:0 8:0 9:1 10:1 11:1 12:1 13:0 14:0 15:1 16:1 17:1 18:1 19:1 20:1 21:0 22:0 
1 0:1 1:1 2:1 3:1 4:1 5:0 6:0 7:0 8:0 9:1 10:1 11:1 12:1 13:0 14:0 15:1 16:1 17:1 18:1 19:1 20:1 21:0 22:0 
1 0:0 1:0 2:0 3:0 4:0 5:1 6:1 7:1 8:1 9:0 10:0 11:0 12:0 13:1 14:1 15:0 16:0 17:0 18:0 19:0 20:0 21:0 22:1 
1 0:1 1:1 2:1 3:1 4:1 5:1 6:1 7:1 8:1 9:0 10:0 11:0 12:0 13:0 14:1 15:0 16:0 17:0 18:0 19:0 20:0 21:1 22:1 
1 0:1 1:1 2:1 3:1 4:1 5:0 6:1 7:1 8:0 9:1 10:1 11:0 12:0 13:1 14:0 15:0 16:0 17:1 18:1 19:0 20:0 21:1 22:1 
1 0:0 1:0 2:0 3:0 4:0 5:1 6:1 7:1 8:1 9:1 10:1 11:1 12:1 13:1 14:1 15:1 16:1 17:0 18:0 19:1 20:1 21:0 22:1 
1 0:0 1:0 2:0 3:0 4:0 5:1 6:1 7:1 8:1 9:1 10:1 11:1 12:1 13:0 14:1 15:1 16:1 17:1 18:1 19:1 20:1 21:0 22:0 
1 0:1 1:1 2:1 3:1 4:1 5:0 6:0 7:0 8:0 9:1 10:1 11:1 12:1 13:1 14:0 15:1 16:1 17:1 18:1 19:1 20:1 21:1 22:1 
0.68459470783980625 0:1 1:0 2:0 3:0 4:1 5:1 6:1 7:1 8:1 9:1 10:1 11:1 12:1 13:1 14:1 15:1 16:1 17:1 18:1 19:1 20:1 21:1 22:1 
1 0:1 1:1 2:1 3:1 4:1 5:0 6:0 7:0 8:0 9:1 10:1 11:1 12:1 13:0 14:0 15:1 16:1 17:1 18:1 19:1 20:1 21:0 22:0 
1 0:1 1:1 2:1 3:1 4:1 5:1 6:1 7:1 8:1 9:1 10:1 11:1 12:1 13:1 14:1 15:1 16:1 17:1 18:1 19:1 20:1 21:1 22:1 
1 0:1 1:1 2:1 3:1 4:1 5:1 6:1 7:1 8:1 9:1 10:1 11:1 12:1 13:1 14:1 15:1 16:1 17:1 18:1 19:1 20:1 21:1 22:1 
1 0:1 1:1 2:1 3:1 4:1 5:1 6:1 7:1 8:1 9:1 10:1 11:1 12:1 13:1 14:1 15:1 16:1 17:1 18:1 19:1 20:1 21:1 22:1 
1 0:1 1:1 2:1 3:1 4:1 5:1 6:1 7:1 8:1 9:1 10:1 11:1 12:1 13:1 14:1 15:1 16:1 17:1 18:1 19:1 20:1 21:1 22:1 
1 0:1 1:1 2:1 3:1 4:1 5:1 6:1 7:1 8:1 9:1 10:1 11:1 12:1 13:1 14:1 15:1 16:1 17:1 18:1 19:1 20:1 21:1 22:1 
1 0:0 1:0 2:0 3:0 4:0 5:1 6:1 7:1 8:1 9:0 10:0 11:0 12:0 13:0 14:1 15:0 16:0 17:0 18:0 19:0 20:0 21:0 22:0 
1 0:0 1:0 2:0 3:0 4:0 5:1 6:1 7:1 8:1 9:0 10:0 11:0 12:0 13:0 14:1 15:0 16:0 17:0 18:0 19:0 20:0 21:0 22:0 
1 0:0 1:0 2:0 3:0 4:0 5:1 6:1 7:1 8:1 9:1 10:1 11:1 12:1 13:1 14:1 15:1 16:1 17:1 18:1 19:1 20:1 21:0 22:1 
1 0:0 1:0 2:0 3:0 4:0 5:1 6:1 7:1 8:1 9:1 10:1 11:1 12:1 13:1 14:1 15:1 16:1 17:1 18:1 19:1 20:1 21:0 22:1 
1 0:1 1:0 2:0 3:0 4:0 5:1 6:0 7:1 8:1 9:1 10:1 11:0 12:0 13:1 14:1 15:0 16:0 17:0 18:0 19:0 20:0 21:1 22:1 
1 0:0 1:0 2:0 3:0 4:0 5:1 6:1 7:1 8:1 9:1 10:1 11:1 12:1 13:0 14:1 15:1 16:1 17:0 18:0 19:1 20:1 21:0 22:0 
1 0:0 1:0 2:0 3:0 4:0 5:1 6:0 7:0 8:0 9:0 10:0 11:0 12:1 13:0 14:1 15:0 16:0 17:0 18:1 19:1 20:0 21:0 22:0 
1 0:1 1:1 2:1 3:1 4:1 5:1 6:0 7:0 8:0 9:1 10:1 11:1 12:1 13:1 14:1 15:0 16:0 17:1 18:1 19:1 20:1 21:1 22:1 
1 0:0 1:0 2:0 3:0 4:0 5:1 6:1 7:1 8:1 9:1 10:1 11:1 12:1 13:1 14:1 15:1 16:1 17:0 18:0 19:1 20:1 21:0 22:1 
1 0:1 1:1 2:1 3:1 4:1 5:1 6:0 7:1 8:1 9:1 10:1 11:1 12:1 13:1 14:1 15:0 16:0 17:1 18:1 19:1 20:1 21:1 22:1 
1 0:1 1:1 2:1 3:1 4:1 5:0 6:1 7:0 8:0 9:1 10:1 11:1 12:1 13:1 14:0 15:1 16:1 17:1 18:1 19:1 20:1 21:1 22:1 
1 0:0 1:0 2:0 3:0 4:0 5:1 6:0 7:0 8:0 9:1 10:1 11:1 12:1 13:1 14:1 15:1 16:1 17:1 18:1 19:1 20:1 21:1 22:1 
1 0:1 1:1 2:1 3:1 4:1 5:1 6:1 7:1 8:1 9:1 10:1 11:1 12:1 13:1 14:1 15:1 16:1 17:1 18:1 19:1 20:1 21:1 22:1 
0.20161703282683241 0:1 1:1 2:1 3:1 4:1 5:1 6:1 7:1 8:1 9:0 10:0 11:0 12:0 13:1 14:1 15:0 16:0 17:0 18:0 19:0 20:0 21:1 22:1 
1 0:0 1:0 2:0 3:0 4:0 5:0 6:0 7:0 8:0 9:1 10:1 11:1 12:1 13:1 14:0 15:1 16:1 17:1 18:1 19:1 20:1 21:0 22:1 
1 0:0 1:0 2:0 3:0 4:0 5:0 6:1 7:1 8:0 9:0 10:0 11:0 12:0 13:0 14:0 15:0 16:0 17:0 18:0 19:0 20:0 21:0 22:0 
1 0:1 1:1 2:1 3:1 4:1 5:0 6:0 7:0 8:0 9:1 10:1 11:1 12:1 13:1 14:0 15:1 16:1 17:1 18:1 19:1 20:1 21:1 22:1 
1 0:1 1:1 2:1 3:1 4:1 5:1 6:1 7:1 8:1 9:0 10:0 11:0 12:0 13:1 14:1 15:0 16:0 17:0 18:0 19:0 20:0 21:1 22:1 
1 0:1 1:1 2:1 3:1 4:1 5:1 6:0 7:1 8:1 9:1 10:1 11:1 12:1 13:1 14:1 15:0 16:0 17:1 18:1 19:1 20:1 21:1 22:1 
0.61576031291418343 0:1 1:1 2:1 3:1 4:1 5:1 6:1 7:1 8:1 9:1 10:1 11:1 12:1 13:1 14:1 15:1 16:1 17:1 18:1 19:1 20:1 21:1 22:1 
1 0:0 1:0 2:0 3:0 4:0 5:0 6:0 7:0 8:0 9:0 10:0 11:1 12:1 13:0 14:0 15:0 16:0 17:1 18:1 19:1 20:1 21:0 22:0 
1 0:1 1:1 2:1 3:1 4:1 5:1 6:1 7:1 8:1 9:0 10:0 11:0 12:0 13:1 14:1 15:0 16:0 17:0 18:0 19:0 20:0 21:1 22:1 
1 0:1 1:1 2:1 3:1 4:1 5:0 6:1 7:0 8:0 9:1 10:1 11:1 12:1 13:1 14:0 15:1 16:1 17:1 18:1 19:1 20:1 21:1 22:1 
1 0:1 1:1 2:1 3:1 4:1 5:0 6:1 7:0 8:0 9:1 10:1 11:1 12:1 13:1 14:0 15:1 16:1 17:1 18:1 19:1 20:1 21:1 22:1 
1 0:1 1:1 2:1 3:1 4:1 5:0 6:1 7:0 8:0 9:1 10:1 11:1 12:1 13:1 14:0 15:1 16:1 17:1 18:1 19:1 20:1 21:1 22:1 
1 0:1 1:1 2:1 3:1 4:1 5:1 6:1 7:1 8:1 9:0 10:0 11:0 12:0 13:1 14:1 15:0 16:0 17:0 18:0 19:0 20:0 21:1 22:1 
1 0:1 1:1 2:1 3:1 4:1 5:1 6:1 7:1 8:1 9:1 10:1 11:0 12:0 13:1 14:1 15:0 16:0 17:0 18:0 19:0 20:0 21:0 22:1 
1 0:1 1:1 2:1 3:1 4:1 5:1 6:1 7:1 8:1 9:1 10:1 11:0 12:1 13:1 14:1 15:0 16:0 17:0 18:1 19:1 20:0 21:0 22:1 
1 0:1 1:1 2:1 3:1 4:1 5:1 6:1 7:1 8:1 9:1 10:1 11:0 12:1 13:0 14:1 15:0 16:0 17:0 18:1 19:1 20:0 21:0 22:1 
1 0:1 1:1 2:1 3:1 4:1 5:1 6:0 7:0 8:0 9:1 10:1 11:1 12:1 13:1 14:1 15:0 16:0 17:1 18:1 19:1 20:1 21:1 22:1 
1 0:1 1:1 2:1 3:1 4:1 5:1 6:0 7:1 8:1 9:1 10:1 11:1 12:1 13:1 14:1 15:0 16:0 17:1 18:1 19:1 20:1 21:1 22:1 
1 0:1 1:1 2:1 3:1 4:1 5:1 6:0 7:0 8:0 9:1 10:1 11:1 12:1 13:1 14:1 15:0 16:0 17:1 18:1 19:1 20:1 21:1 22:1 
1 0:1 1:1 2:1 3:1 4:1 5:1 6:0 7:0 8:0 9:1 10:1 11:1 12:1 13:1 14:1 15:0 16:0 17:1 18:1 19:1 20:1 21:1 22:1 
1 0:0 1:0 2:0 3:0 4:0 5:1 6:1 7:1 8:1 9:1 10:1 11:1 12:1 13:0 14:1 15:1 16:1 17:1 18:1 19:1 20:1 21:0 22:0 
1 0:0 1:0 2:0 3:0 4:0 5:1 6:1 7:1 8:1 9:0 10:0 11:0 12:0 13:1 14:1 15:0 16:0 17:0 18:0 19:0 20:0 21:0 22:1 
1 0:1 1:1 2:1 3:1 4:1 5:1 6:1 7:1 8:1 9:0 10:0 11:0 12:0 13:1 14:1 15:0 16:0 17:0 18:0 19:0 20:0 21:1 22:1 
1 0:1 1:1 2:1 3:1 4:1 5:1 6:1 7:1 8:1 9:0 10:0 11:0 12:0 13:1 14:1 15:0 16:0 17:0 18:0 19:0 20:0 21:1 22:1 
1 0:1 1:1 2:1 3:1 4:1 5:1 6:1 7:1 8:1 9:0 10:0 11:0 12:0 13:1 14:1 15:0 16:0 17:0 18:0 19:0 20:0 21:1 22:1 
1 0:1 1:1 2:1 3:1 4:1 5:1 6:1 7:1 8:1 9:0 10:0 11:0 12:0 13:1 14:1 15:0 16:0 17:0 18:0 19:0 20:0 21:1 22:1 
1 0:1 1:1 2:1 3:1 4:1 5:1 6:1 7:1 8:1 9:0 10:0 11:0 12:0 13:1 14:1 15:0 16:0 17:0 18:0 19:0 20:0 21:1 22:1 
1 0:1 1:1 2:1 3:1 4:1 5:1 6:1 7:1 8:1 9:0 10:0 11:0 12:0 13:1 14:1 15:0 16:0 17:0 18:0 19:0 20:0 21:1 22:1 
1 0:1 1:1 2:1 3:1 4:1 5:1 6:1 7:1 8:1 9:0 10:0 11:0 12:0 13:1 14:1 15:0 16:0 17:0 18:0 19:0 20:0 21:1 22:1 
1 0:1 1:1 2:1 3:1 4:1 5:1 6:1 7:1 8:1 9:0 10:0 11:0 12:0 13:1 14:1 15:0 16:0 17:0 18:0 19:0 20:0 21:1 22:1 
1 0:1 1:1 2:1 3:1 4:1 5:1 6:1 7:1 8:1 9:0 10:0 11:0 12:0 13:1 14:1 15:0 16:0 17:0 18:0 19:0 20:0 21:1 22:1 
1 0:1 1:1 2:1 3:1 4:1 5:0 6:1 7:1 8:0 9:0 10:0 11:0 12:0 13:1 14:0 15:0 16:0 17:0 18:0 19:0 20:0 21:1 22:1 
1 0:0 1:0 2:0 3:0 4:0 5:1 6:0 7:0 8:0 9:0 10:0 11:0 12:1 13:0 14:1 15:0 16:0 17:0 18:1 19:1 20:0 21:0 22:0 
1 0:0 1:0 2:0 3:0 4:0 5:1 6:0 7:0 8:0 9:0 10:0 11:0 12:1 13:0 14:1 15:0 16:0 17:0 18:1 19:1 20:0 21:0 22:0 
1 0:1 1:1 2:1 3:1 4:1 5:1 6:1 7:1 8:1 9:0 10:0 11:0 12:0 13:1 14:1 15:0 16:0 17:0 18:0 19:0 20:0 21:1 22:1 
1 0:1 1:1 2:1 3:1 4:1 5:1 6:1 7:1 8:1 9:0 10:0 11:0 12:0 13:1 14:1 15:0 16:0 17:0 18:0 19:0 20:0 21:1 22:1 
1 0:1 1:1 2:1 3:1 4:1 5:1 6:0 7:1 8:0 9:1 10:1 11:1 12:1 13:1 14:1 15:1 16:1 17:1 18:1 19:1 20:1 21:1 22:1 
1 0:0 1:0 2:0 3:0 4:0 5:1 6:0 7:1 8:0 9:1 10:1 11:1 12:1 13:1 14:1 15:1 16:1 17:1 18:1 19:1 20:1 21:1 22:1 
1 0:0 1:0 2:0 3:0 4:0 5:1 6:1 7:1 8:0 9:1 10:1 11:1 12:1 13:1 14:1 15:1 16:1 17:1 18:1 19:1 20:1 21:1 22:1 
1 0:1 1:1 2:1 3:1 4:1 5:1 6:0 7:0 8:0 9:1 10:1 11:1 12:1 13:1 14:1 15:0 16:0 17:1 18:1 19:1 20:1 21:1 22:1 
1 0:1 1:1 2:1 3:1 4:1 5:1 6:1 7:1 8:1 9:1 10:0 11:0 12:1 13:0 14:1 15:0 16:0 17:0 18:1 19:1 20:0 21:0 22:0 
1 0:1 1:1 2:1 3:1 4:1 5:0 6:1 7:0 8:0 9:1 10:1 11:1 12:1 13:1 14:0 15:1 16:1 17:1 18:1 19:1 20:1 21:1 22:1 
1 0:1 1:1 2:1 3:1 4:1 5:0 6:1 7:0 8:0 9:1 10:1 11:1 12:1 13:1 14:0 15:1 16:1 17:1 18:1 19:1 20:1 21:1 22:1 
1 0:1 1:1 2:1 3:1 4:1 5:0 6:1 7:0 8:0 9:1 10:1 11:1 12:1 13:1 14:0 15:1 16:1 17:1 18:1 19:1 20:1 21:1 22:1 
1 0:1 1:1 2:1 3:1 4:1 5:1 6:1 7:1 8:1 9:0 10:0 11:0 12:0 13:1 14:1 15:0 16:0 17:0 18:0 19:0 20:0 21:1 22:1 
1 0:1 1:1 2:1 3:1 4:1 5:1 6:1 7:1 8:1 9:0 10:0 11:0 12:0 13:1 14:1 15:0 16:0 17:0 18:0 19:0 20:0 21:1 22:1 
1 0:1 1:1 2:1 3:1 4:1 5:1 6:1 7:1 8:1 9:0 10:0 11:0 12:0 13:1 14:1 15:0 16:0 17:0 18:0 19:0 20:0 21:1 22:1 
1 0:1 1:1 2:1 3:1 4:1 5:1 6:1 7:1 8:1 9:0 10:0 11:0 12:0 13:1 14:1 15:0 16:0 17:0 18:0 19:0 20:0 21:1 22:1 
1 0:0 1:0 2:0 3:0 4:0 5:1 6:1 7:1 8:1 9:1 10:1 11:1 12:1 13:1 14:1 15:1 16:1 17:0 18:0 19:1 20:1 21:0 22:1 
0.83220292151673725 0:0 1:0 2:0 3:0 4:0 5:1 6:1 7:1 8:1 9:1 10:1 11:1 12:1 13:1 14:1 15:1 16:1 17:1 18:1 19:1 20:1 21:1 22:1 
1 0:0 1:0 2:0 3:0 4:0 5:1 6:1 7:1 8:1 9:1 10:1 11:1 12:1 13:1 14:1 15:1 16:1 17:1 18:1 19:1 20:1 21:1 22:1 
1 0:0 1:0 2:0 3:0 4:0 5:0 6:0 7:0 8:0 9:1 10:1 11:1 12:1 13:0 14:0 15:1 16:1 17:1 18:1 19:1 20:1 21:0 22:0 
1 0:0 1:0 2:0 3:0 4:0 5:0 6:0 7:0 8:0 9:1 10:1 11:1 12:1 13:0 14:0 15:1 16:1 17:1 18:1 19:1 20:1 21:0 22:0 
0.96367994133556079 0:0 1:0 2:0 3:0 4:0 5:1 6:1 7:1 8:1 9:1 10:1 11:1 12:1 13:1 14:1 15:1 16:1 17:1 18:1 19:1 20:1 21:1 22:1 
-1 0:1 1:1 2:1 3:1 4:1 5:1 6:1 7:1 8:0 9:1 10:1 11:0 12:0 13:1 14:1 15:0 16:0 17:0 18:0 19:0 20:0 21:0 22:1 
-1 0:0 1:0 2:1 3:1 4:1 5:0 6:1 7:0 8:0 9:1 10:1 11:1 12:1 13:1 14:0 15:1 16:1 17:0 18:1 19:1 20:1 21:1 22:1 
-1 0:1 1:1 2:1 3:1 4:1 5:1 6:0 7:1 8:1 9:1 10:1 11:0 12:1 13:0 14:1 15:0 16:0 17:1 18:1 19:1 20:0 21:0 22:0 
-0.64233153639382745 0:0 1:0 2:0 3:0 4:1 5:0 6:0 7:0 8:0 9:1 10:1 11:0 12:1 13:1 14:0 15:0 16:0 17:0 18:1 19:1 20:0 21:1 22:1 
-1 0:1 1:1 2:1 3:1 4:1 5:0 6:1 7:0 8:0 9:0 10:0 11:0 12:1 13:0 14:0 15:0 16:0 17:0 18:1 19:1 20:0 21:0 22:0 
-1 0:1 1:1 2:1 3:1 4:1 5:1 6:0 7:1 8:1 9:1 10:0 11:0 12:1 13:0 14:1 15:0 16:0 17:0 18:1 19:1 20:0 21:0 22:0 
-1 0:1 1:1 2:1 3:1 4:1 5:0 6:0 7:0 8:0 9:1 10:1 11:1 12:1 13:1 14:0 15:1 16:1 17:1 18:1 19:1 20:1 21:0 22:1 
-1 0:0 1:0 2:0 3:0 4:0 5:0 6:1 7:0 8:0 9:1 10:1 11:1 12:1 13:1 14:0 15:1 16:1 17:1 18:1 19:1 20:1 21:0 22:1 
-1 0:1 1:1 2:1 3:1 4:1 5:1 6:0 7:1 8:1 9:0 10:0 11:0 12:0 13:1 14:1 15:0 16:0 17:0 18:0 19:0 20:0 21:1 22:1 
-1 0:0 1:0 2:0 3:0 4:0 5:1 6:1 7:1 8:0 9:1 10:1 11:1 12:1 13:0 14:1 15:1 16:1 17:1 18:1 19:1 20:1 21:1 22:1 
-1 0:1 1:1 2:1 3:1 4:1 5:0 6:0 7:0 8:0 9:1 10:0 11:0 12:1 13:1 14:0 15:0 16:0 17:0 18:1 19:1 20:0 21:1 22:1 
-1 0:1 1:1 2:1 3:1 4:1 5:1 6:0 7:1 8:1 9:0 10:0 11:0 12:1 13:0 14:1 15:0 16:0 17:0 18:0 19:1 20:0 21:0 22:0 
-1 0:1 1:1 2:1 3:1 4:1 5:0 6:1 7:0 8:0 9:1 10:0 11:1 12:1 13:1 14:0 15:0 16:0 17:0 18:0 19:1 20:1 21:1 22:1 
-1 0:1 1:1 2:1 3:1 4:1 5:1 6:1 7:1 8:1 9:1 10:1 11:1 12:1 13:1 14:1 15:1 16:1 17:1 18:1 19:1 20:1 21:1 22:1 
-1 0:0 1:0 2:0 3:0 4:0 5:0 6:1 7:0 8:0 9:1 10:1 11:1 12:1 13:1 14:0 15:1 16:1 17:1 18:1 19:1 20:1 21:0 22:1 
-1 0:0 1:0 2:0 3:0 4:0 5:1 6:1 7:1 8:1 9:0 10:0 11:0 12:0 13:0 14:1 15:0 16:0 17:0 18:0 19:0 20:0 21:0 22:0 
-1 0:1 1:1 2:1 3:1 4:1 5:1 6:1 7:0 8:0 9:1 10:1 11:0 12:0 13:1 14:1 15:0 16:0 17:0 18:0 19:0 20:0 21:1 22:1 
-1 0:1 1:1 2:1 3:1 4:1 5:1 6:1 7:1 8:1 9:0 10:0 11:0 12:0 13:0 14:1 15:0 16:0 17:0 18:0 19:0 20:0 21:1 22:1 
-0.052308451342534604 0:0 1:0 2:0 3:0 4:0 5:1 6:0 7:0 8:0 9:0 10:0 11:1 12:1 13:0 14:1 15:1 16:1 17:1 18:1 19:1 20:1 21:0 22:1 
-1 0:1 1:1 2:1 3:1 4:1 5:0 6:1 7:0 8:0 9:1 10:1 11:1 12:1 13:1 14:0 15:1 16:1 17:1 18:1 19:1 20:1 21:1 22:1 
-1 0:1 1:1 2:1 3:1 4:1 5:1 6:0 7:1 8:1 9:1 10:1 11:1 12:1 13:1 14:1 15:1 16:1 17:1 18:1 19:1 20:1 21:1 22:1 
-1 0:0 1:1 2:1 3:1 4:1 5:0 6:0 7:0 8:0 9:0 10:0 11:1 12:1 13:0 14:0 15:1 16:1 17:1 18:1 19:1 20:1 21:0 22:0 
-1 0:1 1:0 2:0 3:0 4:1 5:0 6:0 7:0 8:0 9:1 10:1 11:1 12:1 13:1 14:0 15:1 16:1 17:1 18:1 19:1 20:1 21:1 22:1 
-1 0:1 1:1 2:1 3:1 4:1 5:1 6:0 7:0 8:0 9:1 10:1 11:1 12:1 13:1 14:1 15:1 16:1 17:1 18:1 19:1 20:1 21:1 22:1 
-1 0:1 1:1 2:1 3:1 4:1 5:1 6:1 7:1 8:1 9:1 10:1 11:0 12:0 13:1 14:1 15:0 16:0 17:0 18:0 19:0 20:0 21:1 22:1 
-1 0:1 1:1 2:1 3:1 4:1 5:0 6:0 7:1 8:0 9:1 10:1 11:1 12:1 13:1 14:0 15:1 16:1 17:1 18:1 19:1 20:1 21:1 22:1 
-0.81421128444820001 0:1 1:1 2:1 3:1 4:1 5:1 6:0 7:1 8:1 9:1 10:0 11:0 12:1 13:1 14:1 15:0 16:0 17:1 18:1 19:1 20:0 21:0 22:1 
-0.15966645781437128 0:1 1:1 2:1 3:1 4:1 5:0 6:0 7:0 8:0 9:1 10:0 11:0 12:1 13:0 14:0 15:0 16:0 17:0 18:1 19:1 20:0 21:1 22:1 
-1 0:0 1:0 2:0 3:0 4:0 5:1 6:1 7:1 8:0 9:1 10:1 11:1 12:1 13:0 14:1 15:1 16:1 17:0 18:0 19:1 20:1 21:0 22:0 
-1 0:1 1:1 2:1 3:1 4:1 5:1 6:0 7:0 8:0 9:1 10:1 11:1 12:1 13:0 14:1 15:1 16:1 17:1 18:1 19:1 20:1 21:1 22:1 
-1 0:0 1:0 2:0 3:0 4:1 5:1 6:0 7:0 8:0 9:1 10:1 11:1 12:1 13:1 14:1 15:1 16:1 17:1 18:1 19:1 20:1 21:1 22:1 
-1 0:1 1:1 2:1 3:1 4:1 5:1 6:0 7:1 8:1 9:0 10:0 11:0 12:1 13:0 14:1 15:0 16:0 17:0 18:0 19:1 20:0 21:0 22:0 
-0.30241721518072473 0:0 1:0 2:0 3:0 4:0 5:0 6:1 7:1 8:0 9:0 10:0 11:0 12:0 13:1 14:0 15:0 16:0 17:0 18:0 19:0 20:0 21:0 22:1 
-1 0:0 1:0 2:0 3:0 4:0 5:0 6:1 7:0 8:0 9:1 10:1 11:1 12:1 13:1 14:0 15:1 16:1 17:1 18:1 19:1 20:1 21:1 22:1 
-1 0:1 1:1 2:1 3:1 4:1 5:1 6:1 7:1 8:1 9:0 10:0 11:0 12:0 13:1 14:1 15:0 16:0 17:0 18:0 19:0 20:0 21:1 22:1 
-1 0:0 1:0 2:0 3:0 4:0 5:1 6:1 7:1 8:1 9:0 10:0 11:0 12:0 13:1 14:1 15:0 16:0 17:0 18:0 19:0 20:0 21:1 22:1 
-0.3206137480252152 0:0 1:0 2:0 3:0 4:0 5:0 6:0 7:0 8:0 9:0 10:0 11:0 12:1 13:0 14:0 15:0 16:0 17:0 18:1 19:1 20:0 21:0 22:0 
-1 0:1 1:1 2:1 3:1 4:1 5:0 6:0 7:0 8:0 9:1 10:1 11:1 12:1 13:0 14:0 15:1 16:1 17:1 18:1 19:1 20:1 21:1 22:1 
-1 0:0 1:0 2:0 3:0 4:0 5:0 6:1 7:0 8:0 9:1 10:1 11:1 12:1 13:0 14:0 15:1 16:1 17:1 18:1 19:1 20:1 21:0 22:0 
-1 0:1 1:1 2:1 3:1 4:1 5:1 6:0 7:1 8:1 9:1 10:0 11:0 12:1 13:1 14:1 15:0 16:0 17:0 18:1 19:0 20:0 21:1 22:1 
-1 0:1 1:1 2:1 3:1 4:1 5:0 6:0 7:1 8:0 9:0 10:0 11:0 12:1 13:1 14:0 15:0 16:0 17:0 18:1 19:1 20:0 21:1 22:1 
-1 0:1 1:1 2:1 3:1 4:1 5:0 6:0 7:0 8:0 9:1 10:0 11:1 12:1 13:0 14:0 15:0 16:0 17:1 18:1 19:1 20:1 21:0 22:0 
-1 0:1 1:1 2:1 3:1 4:1 5:1 6:0 7:0 8:0 9:1 10:1 11:1 12:1 13:0 14:1 15:1 16:1 17:1 18:1 19:1 20:1 21:0 22:1 
-1 0:1 1:1 2:1 3:1 4:1 5:1 6:0 7:1 8:1 9:0 10:0 11:0 12:0 13:1 14:1 15:0 16:0 17:0 18:0 19:0 20:0 21:0 22:1 
-1 0:0 1:0 2:0 3:0 4:1 5:0 6:1 7:0 8:0 9:1 10:0 11:1 12:1 13:1 14:0 15:1 16:1 17:0 18:1 19:1 20:1 21:1 22:1 
-1 0:1 1:1 2:1 3:1 4:1 5:0 6:1 7:0 8:0 9:1 10:1 11:1 12:1 13:0 14:0 15:1 16:1 17:1 18:1 19:1 20:1 21:0 22:0 
-1 0:1 1:1 2:1 3:1 4:1 5:1 6:1 7:1 8:1 9:0 10:0 11:0 12:0 13:1 14:1 15:0 16:0 17:0 18:0 19:0 20:0 21:1 22:1 
-1 0:1 1:1 2:1 3:1 4:1 5:0 6:0 7:0 8:0 9:1 10:0 11:1 12:1 13:0 14:0 15:0 16:0 17:1 18:1 19:1 20:1 21:0 22:0 
-0.54111490168636978 0:0 1:0 2:0 3:0 4:1 5:0 6:0 7:1 8:0 9:0 10:0 11:0 12:1 13:0 14:0 15:0 16:0 17:0 18:0 19:1 20:0 21:1 22:1 
-1 0:1 1:1 2:1 3:1 4:1 5:1 6:1 7:0 8:0 9:1 10:1 11:1 12:1 13:1 14:1 15:1 16:1 17:1 18:1 19:1 20:1 21:0 22:1 
-1 0:0 1:0 2:0 3:0 4:0 5:1 6:0 7:1 8:1 9:1 10:1 11:1 12:1 13:1 14:1 15:1 16:1 17:0 18:0 19:1 20:1 21:0 22:1 
-1 0:0 1:0 2:0 3:0 4:0 5:1 6:1 7:1 8:1 9:1 10:1 11:1 12:1 13:1 14:1 15:1 16:1 17:1 18:1 19:1 20:1 21:1 22:1 
-1 0:0 1:0 2:0 3:0 4:0 5:1 6:1 7:1 8:1 9:1 10:0 11:0 12:0 13:0 14:1 15:0 16:0 17:0 18:0 19:0 20:0 21:0 22:1 
-1 0:0 1:0 2:0 3:0 4:0 5:1 6:1 7:1 8:0 9:1 10:1 11:0 12:0 13:1 14:1 15:0 16:0 17:0 18:0 19:0 20:0 21:0 22:1 
-1 0:1 1:1 2:1 3:1 4:1 5:1 6:1 7:1 8:1 9:1 10:1 11:1 12:1 13:1 14:1 15:1 16:1 17:1 18:1 19:1 20:1 21:1 22:1 
-1 0:0 1:0 2:0 3:0 4:0 5:1 6:1 7:1 8:0 9:1 10:0 11:0 12:0 13:0 14:1 15:0 16:0 17:0 18:0 19:0 20:0 21:0 22:0 
-1 0:1 1:1 2:1 3:1 4:1 5:0 6:0 7:0 8:0 9:1 10:1 11:0 12:1 13:1 14:0 15:0 16:0 17:1 18:1 19:1 20:0 21:1 22:1 
-1 0:1 1:1 2:1 3:1 4:1 5:1 6:0 7:0 8:0 9:0 10:0 11:1 12:1 13:0 14:1 15:1 16:1 17:1 18:1 19:1 20:1 21:1 22:1 
-1 0:0 1:0 2:0 3:0 4:0 5:0 6:0 7:1 8:0 9:1 10:1 11:1 12:1 13:0 14:0 15:1 16:1 17:1 18:1 19:1 20:1 21:1 22:1 
-1 0:0 1:0 2:0 3:0 4:0 5:0 6:1 7:0 8:0 9:1 10:1 11:1 12:1 13:1 14:0 15:1 16:1 17:1 18:1 19:1 20:1 21:0 22:1 
-1 0:1 1:1 2:1 3:1 4:1 5:0 6:1 7:1 8:0 9:0 10:0 11:0 12:0 13:0 14:0 15:0 16:0 17:0 18:0 19:0 20:0 21:0 22:0 
-1 0:1 1:1 2:1 3:1 4:1 5:0 6:1 7:0 8:0 9:1 10:0 11:1 12:1 13:1 14:0 15:1 16:1 17:0 18:1 19:1 20:1 21:1 22:1 
-1 0:1 1:1 2:1 3:1 4:1 5:0 6:1 7:0 8:0 9:0 10:0 11:0 12:0 13:1 14:0 15:0 16:0 17:0 18:0 19:0 20:0 21:1 22:1 
-1 0:0 1:0 2:0 3:0 4:0 5:1 6:0 7:1 8:1 9:0 10:0 11:1 12:1 13:1 14:1 15:0 16:0 17:1 18:1 19:1 20:1 21:1 22:1 
-1 0:1 1:1 2:1 3:1 4:1 5:0 6:0 7:0 8:0 9:1 10:1 11:1 12:1 13:0 14:0 15:1 16:1 17:1 18:1 19:1 20:1 21:0 22:0 
-1 0:1 1:1 2:1 3:1 4:1 5:0 6:1 7:0 8:0 9:0 10:0 11:0 12:1 13:0 14:0 15:0 16:0 17:0 18:1 19:1 20:0 21:0 22:0 
-1 0:0 1:0 2:0 3:0 4:0 5:1 6:1 7:1 8:1 9:0 10:0 11:0 12:0 13:1 14:1 15:0 16:0 17:0 18:0 19:0 20:0 21:0 22:1 
-1 0:1 1:0 2:0 3:0 4:0 5:0 6:0 7:0 8:0 9:0 10:0 11:1 12:1 13:0 14:0 15:1 16:1 17:1 18:1 19:1 20:1 21:1 22:1 
-1 0:0 1:0 2:0 3:0 4:1 5:1 6:1 7:1 8:1 9:0 10:0 11:0 12:0 13:0 14:1 15:0 16:0 17:0 18:0 19:0 20:0 21:0 22:0 
-1 0:0 1:0 2:1 3:1 4:1 5:0 6:1 7:0 8:0 9:1 10:1 11:1 12:1 13:1 14:0 15:1 16:0 17:1 18:1 19:1 20:1 21:1 22:1 
-1 0:1 1:1 2:1 3:1 4:1 5:1 6:0 7:1 8:1 9:0 10:0 11:1 12:1 13:1 14:1 15:0 16:0 17:1 18:1 19:1 20:1 21:1 22:1 
-1 0:1 1:1 2:1 3:1 4:1 5:1 6:1 7:1 8:1 9:1 10:1 11:0 12:0 13:1 14:1 15:0 16:0 17:1 18:1 19:0 20:0 21:0 22:1 
-1 0:1 1:1 2:1 3:1 4:1 5:1 6:0 7:1 8:1 9:1 10:1 11:1 12:1 13:1 14:1 15:1 16:1 17:1 18:1 19:1 20:1 21:0 22:1 
-0.7970112931740132 0:0 1:0 2:0 3:0 4:0 5:1 6:0 7:0 8:0 9:0 10:0 11:0 12:0 13:0 14:1 15:0 16:0 17:0 18:0 19:0 20:0 21:0 22:0 
-1 0:1 1:1 2:1 3:1 4:1 5:1 6:0 7:0 8:0 9:1 10:1 11:0 12:0 13:1 14:1 15:0 16:0 17:1 18:1 19:0 20:0 21:1 22:1 
-1 0:1 1:1 2:1 3:1 4:1 5:1 6:1 7:1 8:1 9:1 10:1 11:0 12:0 13:1 14:1 15:0 16:0 17:1 18:1 19:0 20:0 21:0 22:1 
-1 0:1 1:1 2:1 3:1 4:1 5:1 6:1 7:1 8:0 9:1 10:1 11:0 12:0 13:1 14:1 15:0 16:0 17:0 18:0 19:0 20:0 21:0 22:1 
-1 0:1 1:1 2:1 3:1 4:1 5:1 6:1 7:1 8:1 9:1 10:1 11:1 12:1 13:1 14:1 15:1 16:1 17:1 18:1 19:1 20:1 21:1 22:1 
-1 0:1 1:1 2:1 3:1 4:1 5:0 6:0 7:1 8:0 9:0 10:0 11:0 12:0 13:1 14:0 15:0 16:0 17:0 18:0 19:0 20:0 21:1 22:1 
-1 0:1 1:0 2:0 3:0 4:0 5:0 6:0 7:0 8:0 9:1 10:0 11:1 12:1 13:0 14:0 15:0 16:0 17:1 18:1 19:1 20:1 21:0 22:0 
-1 0:1 1:1 2:1 3:1 4:1 5:1 6:1 7:1 8:1 9:1 10:1 11:1 12:1 13:0 14:1 15:1 16:1 17:1 18:1 19:1 20:1 21:0 22:1 
-0.31691387521409525 0:0 1:0 2:0 3:0 4:0 5:1 6:1 7:0 8:0 9:1 10:1 11:0 12:0 13:0 14:1 15:0 16:0 17:0 18:0 19:0 20:0 21:0 22:0 
-1 0:1 1:1 2:1 3:1 4:1 5:0 6:0 7:0 8:0 9:0 10:0 11:1 12:1 13:0 14:0 15:1 16:1 17:1 18:1 19:1 20:1 21:1 22:1 
-1 0:1 1:1 2:1 3:1 4:1 5:0 6:0 7:0 8:0 9:0 10:0 11:1 12:1 13:0 14:0 15:1 16:1 17:1 18:1 19:1 20:1 21:1 22:1 
-1 0:1 1:1 2:1 3:1 4:1 5:1 6:1 7:1 8:1 9:0 10:0 11:0 12:0 13:1 14:1 15:0 16:0 17:0 18:0 19:0 20:0 21:1 22:1 
-1 0:1 1:1 2:1 3:1 4:1 5:1 6:0 7:1 8:1 9:0 10:0 11:1 12:1 13:1 14:1 15:1 16:1 17:1 18:1 19:1 20:1 21:1 22:1 
-0.84663381645835145 0:1 1:1 2:1 3:1 4:1 5:1 6:1 7:1 8:0 9:1 10:1 11:0 12:0 13:1 14:1 15:0 16:0 17:1 18:1 19:0 20:0 21:0 22:1 
-1 0:1 1:1 2:1 3:1 4:1 5:0 6:1 7:1 8:0 9:1 10:1 11:1 12:1 13:1 14:0 15:1 16:1 17:1 18:1 19:1 20:1 21:1 22:1 
-1 0:1 1:1 2:1 3:1 4:1 5:1 6:0 7:0 8:0 9:1 10:1 11:1 12:1 13:1 14:1 15:1 16:1 17:1 18:1 19:1 20:1 21:0 22:1 
-1 0:1 1:1 2:1 3:1 4:1 5:0 6:0 7:0 8:0 9:0 10:0 11:1 12:1 13:0 14:0 15:1 16:1 17:1 18:1 19:1 20:1 21:0 22:0 
-1 0:1 1:1 2:1 3:1 4:1 5:0 6:1 7:1 8:0 9:1 10:1 11:1 12:1 13:1 14:0 15:1 16:1 17:1 18:1 19:1 20:1 21:1 22:1 
-1 0:1 1:1 2:1 3:1 4:1 5:0 6:1 7:1 8:0 9:0 10:0 11:0 12:0 13:1 14:0 15:0 16:0 17:0 18:0 19:0 20:0 21:1 22:1 
-1 0:1 1:1 2:1 3:1 4:1 5:0 6:0 7:0 8:0 9:1 10:1 11:1 12:1 13:0 14:0 15:1 16:1 17:1 18:1 19:1 20:1 21:0 22:0 
-1 0:1 1:1 2:1 3:1 4:1 5:1 6:1 7:1 8:1 9:0 10:0 11:0 12:0 13:1 14:1 15:0 16:0 17:0 18:0 19:0 20:0 21:1 22:1 
-1 0:0 1:0 2:0 3:0 4:0 5:0 6:1 7:1 8:0 9:1 10:1 11:1 12:1 13:0 14:0 15:1 16:1 17:1 18:1 19:1 20:1 21:0 22:0 
-1 0:0 1:0 2:0 3:0 4:0 5:1 6:0 7:1 8:1 9:1 10:1 11:1 12:1 13:1 14:1 15:1 16:1 17:1 18:1 19:1 20:1 21:0 22:1 
-0.97827500561389769 0:1 1:1 2:1 3:1 4:1 5:1 6:0 7:0 8:0 9:0 10:0 11:1 12:1 13:0 14:1 15:1 16:1 17:1 18:1 19:1 20:1 21:0 22:0 
-1 0:1 1:1 2:1 3:1 4:1 5:0 6:0 7:0 8:0 9:0 10:0 11:1 12:1 13:0 14:0 15:0 16:0 17:1 18:1 19:1 20:1 21:1 22:1 
-1 0:1 1:0 2:0 3:0 4:0 5:1 6:1 7:1 8:1 9:1 10:1 11:1 12:1 13:1 14:1 15:1 16:1 17:1 18:1 19:1 20:1 21:1 22:1 
-1 0:1 1:1 2:1 3:1 4:1 5:1 6:1 7:1 8:1 9:0 10:0 11:0 12:0 13:0 14:1 15:0 16:0 17:0 18:0 19:0 20:0 21:0 22:0 
-1 0:1 1:1 2:1 3:1 4:1 5:0 6:0 7:0 8:0 9:1 10:1 11:1 12:1 13:0 14:0 15:1 16:1 17:1 18:1 19:1 20:1 21:0 22:1 
-1 0:1 1:1 2:1 3:1 4:1 5:0 6:1 7:0 8:0 9:1 10:1 11:1 12:1 13:0 14:0 15:1 16:1 17:1 18:1 19:1 20:1 21:0 22:0 
-1 0:0 1:0 2:0 3:0 4:0 5:1 6:1 7:1 8:1 9:1 10:1 11:1 12:1 13:1 14:1 15:1 16:1 17:1 18:1 19:1 20:1 21:1 22:1 
-0.96143216020835798 0:1 1:1 2:1 3:1 4:1 5:0 6:1 7:0 8:0 9:0 10:0 11:0 12:0 13:1 14:0 15:0 16:0 17:0 18:0 19:0 20:0 21:0 22:1 
-1 0:1 1:1 2:1 3:1 4:1 5:1 6:1 7:1 8:1 9:1 10:1 11:0 12:0 13:1 14:1 15:0 16:0 17:1 18:1 19:0 20:0 21:1 22:1 
-1 0:1 1:1 2:1 3:1 4:1 5:1 6:0 7:0 8:0 9:1 10:1 11:1 12:1 13:0 14:1 15:1 16:1 17:1 18:1 19:1 20:1 21:1 22:1 
-1 0:1 1:1 2:1 3:1 4:1 5:0 6:1 7:1 8:0 9:1 10:1 11:1 12:1 13:1 14:0 15:1 16:1 17:1 18:1 19:1 20:1 21:1 22:1 
-1 0:1 1:1 2:1 3:1 4:1 5:1 6:1 7:1 8:1 9:1 10:1 11:1 12:1 13:1 14:1 15:1 16:1 17:1 18:1 19:1 20:1 21:1 22:1 
-0.7517630909590155 0:1 1:1 2:1 3:1 4:1 5:0 6:1 7:1 8:0 9:1 10:1 11:0 12:0 13:1 14:0 15:0 16:0 17:0 18:0 19:0 20:0 21:0 22:1 
-1 0:1 1:1 2:1 3:1 4:1 5:1 6:1 7:0 8:0 9:0 10:0 11:1 12:1 13:1 14:1 15:1 16:1 17:0 18:0 19:1 20:1 21:1 22:1 
-0.78411059575057518 0:1 1:1 2:1 3:1 4:1 5:0 6:1 7:0 8:0 9:0 10:0 11:0 12:0 13:0 14:0 15:0 16:0 17:0 18:0 19:0 20:0 21:0 22:0 
-1 0:1 1:1 2:1 3:1 4:1 5:0 6:0 7:1 8:0 9:1 10:1 11:0 12:0 13:1 14:0 15:0 16:0 17:1 18:1 19:0 20:0 21:1 22:1 
-1 0:1 1:1 2:1 3:1 4:1 5:0 6:0 7:0 8:0 9:0 10:0 11:1 12:1 13:1 14:0 15:1 16:1 17:1 18:1 19:1 20:1 21:1 22:1 
-1 0:1 1:1 2:1 3:1 4:1 5:1 6:0 7:1 8:1 9:1 10:1 11:1 12:1 13:1 14:1 15:1 16:1 17:1 18:1 19:1 20:1 21:1 22:1 
-1 0:1 1:1 2:1 3:1 4:1 5:1 6:1 7:1 8:1 9:1 10:0 11:0 12:0 13:0 14:1 15:0 16:0 17:0 18:0 19:0 20:0 21:0 22:0 
-1 0:1 1:1 2:1 3:1 4:1 5:0 6:0 7:0 8:0 9:1 10:1 11:1 12:1 13:0 14:0 15:1 16:1 17:1 18:1 19:1 20:1 21:0 22:0 
-1 0:1 1:1 2:1 3:1 4:1 5:1 6:0 7:1 8:1 9:0 10:0 11:0 12:0 13:1 14:1 15:0 16:0 17:0 18:0 19:0 20:0 21:1 22:1 
-1 0:1 1:1 2:1 3:1 4:1 5:1 6:1 7:1 8:1 9:1 10:1 11:0 12:0 13:1 14:1 15:0 16:0 17:0 18:0 19:0 20:0 21:0 22:1 
-1 0:0 1:0 2:0 3:0 4:0 5:0 6:1 7:1 8:0 9:0 10:0 11:0 12:0 13:1 14:0 15:0 16:0 17:0 18:0 19:0 20:0 21:1 22:1 
-1 0:1 1:1 2:1 3:1 4:1 5:1 6:0 7:1 8:1 9:0 10:0 11:0 12:0 13:0 14:1 15:0 16:0 17:0 18:0 19:0 20:0 21:1 22:1 
-1 0:1 1:1 2:1 3:1 4:1 5:0 6:0 7:1 8:0 9:1 10:1 11:1 12:1 13:0 14:0 15:1 16:1 17:1 18:1 19:1 20:1 21:0 22:0 
-1 0:0 1:0 2:0 3:0 4:0 5:1 6:1 7:1 8:1 9:0 10:0 11:0 12:1 13:0 14:1 15:0 16:0 17:1 18:1 19:1 20:0 21:1 22:1 
-1 0:1 1:1 2:1 3:1 4:1 5:0 6:0 7:0 8:0 9:1 10:1 11:1 12:1 13:1 14:0 15:0 16:0 17:1 18:1 19:1 20:1 21:1 22:1 
-1 0:1 1:1 2:1 3:1 4:1 5:1 6:1 7:1 8:1 9:1 10:1 11:0 12:0 13:1 14:1 15:0 16:0 17:0 18:0 19:0 20:0 21:0 22:1 
-1 0:1 1:1 2:1 3:0 4:0 5:0 6:0 7:0 8:0 9:0 10:0 11:0 12:0 13:1 14:0 15:0 16:0 17:0 18:0 19:0 20:0 21:1 22:1 
-1 0:0 1:1 2:1 3:1 4:1 5:1 6:1 7:1 8:1 9:1 10:1 11:1 12:1 13:0 14:1 15:1 16:1 17:1 18:1 19:1 20:1 21:0 22:1 
-0.47138534221133482 0:0 1:0 2:0 3:0 4:0 5:0 6:0 7:0 8:0 9:1 10:1 11:1 12:1 13:0 14:0 15:1 16:1 17:1 18:1 19:1 20:1 21:0 22:1 
-1 0:1 1:1 2:1 3:1 4:1 5:1 6:1 7:0 8:0 9:1 10:1 11:1 12:1 13:1 14:1 15:1 16:1 17:1 18:1 19:1 20:1 21:0 22:1 
-1 0:0 1:0 2:0 3:0 4:0 5:0 6:0 7:0 8:0 9:0 10:0 11:1 12:1 13:0 14:0 15:1 16:1 17:1 18:1 19:1 20:1 21:1 22:1 
-1 0:1 1:1 2:1 3:1 4:1 5:1 6:1 7:1 8:1 9:0 10:0 11:1 12:1 13:1 14:1 15:1 16:1 17:1 18:1 19:1 20:1 21:1 22:1 
-1 0:1 1:1 2:1 3:1 4:1 5:0 6:1 7:1 8:0 9:1 10:1 11:1 12:1 13:0 14:0 15:1 16:1 17:1 18:1 19:1 20:1 21:0 22:0 
-1 0:1 1:1 2:1 3:1 4:1 5:1 6:1 7:1 8:1 9:0 10:0 11:1 12:1 13:1 14:1 15:1 16:1 17:1 18:1 19:1 20:1 21:1 22:1 
-1 0:0 1:0 2:0 3:0 4:0 5:0 6:0 7:0 8:0 9:0 10:0 11:1 12:1 13:0 14:0 15:0 16:0 17:1 18:1 19:1 20:1 21:0 22:0 
-0.12061628258877603 0:0 1:0 2:0 3:0 4:0 5:0 6:0 7:0 8:0 9:1 10:0 11:1 12:1 13:0 14:0 15:1 16:1 17:1 18:1 19:1 20:1 21:0 22:0 
-1 0:0 1:0 2:0 3:0 4:0 5:1 6:1 7:1 8:0 9:1 10:1 11:1 12:1 13:0 14:1 15:1 16:1 17:1 18:1 19:1 20:1 21:1 22:1 
-1 0:1 1:1 2:1 3:1 4:1 5:0 6:1 7:1 8:0 9:1 10:1 11:1 12:1 13:0 14:0 15:0 16:0 17:1 18:1 19:1 20:1 21:0 22:1 
-1 0:0 1:0 2:0 3:0 4:0 5:0 6:0 7:0 8:0 9:1 10:0 11:1 12:1 13:0 14:0 15:0 16:0 17:1 18:1 19:1 20:1 21:0 22:0 
-1 0:1 1:1 2:1 3:1 4:1 5:0 6:1 7:0 8:0 9:1 10:1 11:0 12:0 13:1 14:0 15:0 16:0 17:1 18:1 19:0 20:0 21:1 22:1 
-1 0:0 1:0 2:0 3:0 4:0 5:0 6:0 7:0 8:0 9:0 10:0 11:1 12:1 13:0 14:0 15:1 16:1 17:1 18:1 19:1 20:1 21:1 22:1 
-1 0:1 1:1 2:1 3:1 4:1 5:0 6:0 7:0 8:0 9:0 10:0 11:0 12:1 13:0 14:0 15:0 16:0 17:0 18:1 19:1 20:0 21:1 22:1 
-1 0:1 1:1 2:1 3:1 4:1 5:1 6:1 7:1 8:1 9:0 10:0 11:1 12:1 13:1 14:1 15:1 16:1 17:0 18:0 19:1 20:1 21:1 22:1 
-1 0:1 1:1 2:1 3:1 4:1 5:1 6:1 7:1 8:1 9:0 10:0 11:0 12:0 13:1 14:1 15:0 16:0 17:0 18:0 19:0 20:0 21:1 22:1 
-1 0:1 1:1 2:1 3:1 4:1 5:1 6:0 7:1 8:1 9:0 10:0 11:0 12:0 13:1 14:1 15:0 16:0 17:0 18:0 19:0 20:0 21:1 22:1 
-1 0:1 1:1 2:1 3:1 4:1 5:0 6:1 7:0 8:0 9:1 10:1 11:1 12:1 13:1 14:0 15:1 16:1 17:1 18:1 19:1 20:1 21:1 22:1 
-1 0:1 1:1 2:1 3:1 4:1 5:1 6:1 7:1 8:1 9:0 10:0 11:0 12:0 13:0 14:1 15:0 16:0 17:0 18:0 19:0 20:0 21:0 22:0 
-1 0:1 1:1 2:1 3:1 4:1 5:1 6:1 7:1 8:1 9:0 10:0 11:0 12:0 13:1 14:1 15:0 16:0 17:0 18:0 19:0 20:0 21:1 22:1 
-1 0:1 1:1 2:1 3:1 4:1 5:1 6:0 7:1 8:1 9:1 10:1 11:0 12:0 13:1 14:1 15:0 16:0 17:0 18:0 19:0 20:0 21:0 22:1 
-1 0:0 1:0 2:0 3:0 4:0 5:0 6:1 7:0 8:0 9:1 10:1 11:1 12:1 13:0 14:0 15:1 16:1 17:1 18:1 19:1 20:1 21:0 22:0 
-1 0:0 1:0 2:0 3:0 4:1 5:0 6:1 7:1 8:0 9:0 10:0 11:0 12:0 13:1 14:0 15:0 16:0 17:0 18:0 19:0 20:0 21:1 22:1 
-1 0:1 1:1 2:1 3:1 4:1 5:0 6:1 7:1 8:0 9:1 10:1 11:0 12:1 13:0 14:0 15:0 16:0 17:1 18:1 19:1 20:0 21:1 22:1 
-1 0:0 1:0 2:0 3:0 4:0 5:1 6:0 7:1 8:1 9:0 10:0 11:0 12:1 13:0 14:1 15:0 16:0 17:0 18:0 19:1 20:0 21:0 22:0 
